  0.0000000e+000 -1.5641807e+000  3.0122945e+000  7.5887696e+000
  2.0000000e+000 -2.0624291e+000  2.2301019e+000  6.5226329e+000
  4.0000000e+000 -2.6687873e+000  1.1158430e+000  4.9004734e+000
  6.0000000e+000 -3.1546217e+000  2.2520756e-001  3.6050369e+000
  8.0000000e+000 -3.7476324e+000 -4.9162412e-001  2.7643842e+000
  1.0000000e+001 -4.4509013e+000 -1.3600890e+000  1.7307233e+000
  1.2000000e+001 -5.3984985e+000 -2.4408880e+000  5.1672248e-001
  1.4000000e+001 -5.2945338e+000 -2.7146694e+000 -1.3480501e-001
  1.6000000e+001 -5.3064773e+000 -2.6949153e+000 -8.3353303e-002
  1.8000000e+001 -5.1090850e+000 -2.6364345e+000 -1.6378404e-001
  2.0000000e+001 -4.8523706e+000 -2.5060946e+000 -1.5981864e-001
  2.2000000e+001 -4.9390798e+000 -2.5809144e+000 -2.2274907e-001
  2.4000000e+001 -5.2797187e+000 -2.7260627e+000 -1.7240668e-001
  2.6000000e+001 -5.5183498e+000 -2.8441899e+000 -1.7003007e-001
  2.8000000e+001 -5.8064946e+000 -2.9249496e+000 -4.3404600e-002
  3.0000000e+001 -6.0499379e+000 -3.0329764e+000 -1.6014859e-002
  3.2000000e+001 -6.3953854e+000 -3.1413817e+000  1.1262206e-001
  3.4000000e+001 -6.7425812e+000 -3.0810853e+000  5.8041073e-001
  3.6000000e+001 -6.8711695e+000 -3.0358314e+000  7.9950670e-001
  3.8000000e+001 -6.8403272e+000 -2.8464100e+000  1.1475072e+000
  4.0000000e+001 -6.4611102e+000 -2.1569397e+000  2.1472308e+000
  4.2000000e+001 -5.2884627e+000 -1.0011134e+000  3.2862358e+000
  4.4000000e+001 -3.9307876e+000  2.8037876e-001  4.4915451e+000
  4.6000000e+001 -2.2633838e+000  1.7326280e+000  5.7286399e+000
  4.8000000e+001 -2.1240977e-001  3.9461389e+000  8.1046875e+000
  5.0000000e+001  1.4814068e+000  5.7972013e+000  1.0112996e+001
  5.2000000e+001  3.7181954e+000  7.5899644e+000  1.1461733e+001
  5.4000000e+001  4.7473219e+000  8.4946797e+000  1.2242038e+001
  5.6000000e+001  4.9117613e+000  8.5977016e+000  1.2283642e+001
  5.8000000e+001  4.1657845e+000  8.0731675e+000  1.1980551e+001
  6.0000000e+001  3.2992766e+000  7.5253919e+000  1.1751507e+001
  6.2000000e+001  2.1240445e+000  7.2882359e+000  1.2452427e+001
  6.4000000e+001  1.6848891e+000  6.8331827e+000  1.1981476e+001
  6.6000000e+001  4.6405696e-001  5.8982774e+000  1.1332498e+001
  6.8000000e+001 -5.1828669e-001  4.8495107e+000  1.0217308e+001
  7.0000000e+001 -1.2276849e+000  3.5834553e+000  8.3945955e+000
  7.2000000e+001 -1.7443768e+000  2.5756969e+000  6.8957706e+000
  7.4000000e+001 -1.9048963e+000  2.3332871e+000  6.5714705e+000
  7.6000000e+001 -1.8633352e+000  2.2229348e+000  6.3092047e+000
  7.8000000e+001 -1.6142482e+000  2.2649905e+000  6.1442292e+000
  8.0000000e+001 -1.3848898e+000  2.2174464e+000  5.8197827e+000
  8.2000000e+001 -1.2997781e+000  2.0575349e+000  5.4148478e+000
  8.4000000e+001 -1.2763696e+000  2.0035892e+000  5.2835481e+000
  8.6000000e+001 -1.8617364e+000  1.5236344e+000  4.9090052e+000
  8.8000000e+001 -2.1723170e+000  1.2855728e+000  4.7434625e+000
  9.0000000e+001 -2.1625706e+000  1.3424052e+000  4.8473810e+000
  9.2000000e+001 -1.5752989e+000  1.8234257e+000  5.2221502e+000
  9.4000000e+001 -6.7269647e-001  2.6860865e+000  6.0448695e+000
  9.6000000e+001 -4.8264564e-001  2.9367668e+000  6.3561793e+000
  9.8000000e+001 -7.3581732e-001  2.8644357e+000  6.4646887e+000
  1.0000000e+002 -1.1318826e+000  2.3844139e+000  5.9007103e+000
